digraph Tree {
node [shape=box] ;
0 [label="X[106] <= 0.5\ngini = 0.499\nsamples = 4907\nvalue = [2535, 2372]"] ;
1 [label="X[14] <= 0.5\ngini = 0.278\nsamples = 2759\nvalue = [460, 2299]"] ;
0 -> 1 [labeldistance=2.5, labelangle=45, headlabel="True"] ;
2 [label="X[115] <= 0.5\ngini = 0.423\nsamples = 586\nvalue = [408, 178]"] ;
1 -> 2 ;
3 [label="X[20] <= 0.5\ngini = 0.109\nsamples = 433\nvalue = [408, 25]"] ;
2 -> 3 ;
4 [label="gini = 0.0\nsamples = 25\nvalue = [0, 25]"] ;
3 -> 4 ;
5 [label="gini = 0.0\nsamples = 408\nvalue = [408, 0]"] ;
3 -> 5 ;
6 [label="gini = 0.0\nsamples = 153\nvalue = [0, 153]"] ;
2 -> 6 ;
7 [label="X[101] <= 0.5\ngini = 0.047\nsamples = 2173\nvalue = [52, 2121]"] ;
1 -> 7 ;
8 [label="X[104] <= 0.5\ngini = 0.02\nsamples = 2143\nvalue = [22, 2121]"] ;
7 -> 8 ;
9 [label="gini = 0.0\nsamples = 2121\nvalue = [0, 2121]"] ;
8 -> 9 ;
10 [label="gini = 0.0\nsamples = 22\nvalue = [22, 0]"] ;
8 -> 10 ;
11 [label="gini = 0.0\nsamples = 30\nvalue = [30, 0]"] ;
7 -> 11 ;
12 [label="X[62] <= 0.5\ngini = 0.066\nsamples = 2148\nvalue = [2075, 73]"] ;
0 -> 12 [labeldistance=2.5, labelangle=-45, headlabel="False"] ;
13 [label="X[25] <= 0.5\ngini = 0.026\nsamples = 2103\nvalue = [2075, 28]"] ;
12 -> 13 ;
14 [label="X[86] <= 0.5\ngini = 0.004\nsamples = 2069\nvalue = [2065, 4]"] ;
13 -> 14 ;
15 [label="X[114] <= 0.5\ngini = 0.002\nsamples = 2067\nvalue = [2065, 2]"] ;
14 -> 15 ;
16 [label="X[67] <= 0.5\ngini = 0.037\nsamples = 107\nvalue = [105, 2]"] ;
15 -> 16 ;
17 [label="gini = 0.0\nsamples = 105\nvalue = [105, 0]"] ;
16 -> 17 ;
18 [label="gini = 0.0\nsamples = 2\nvalue = [0, 2]"] ;
16 -> 18 ;
19 [label="gini = 0.0\nsamples = 1960\nvalue = [1960, 0]"] ;
15 -> 19 ;
20 [label="gini = 0.0\nsamples = 2\nvalue = [0, 2]"] ;
14 -> 20 ;
21 [label="X[71] <= 0.5\ngini = 0.415\nsamples = 34\nvalue = [10, 24]"] ;
13 -> 21 ;
22 [label="gini = 0.0\nsamples = 24\nvalue = [0, 24]"] ;
21 -> 22 ;
23 [label="gini = 0.0\nsamples = 10\nvalue = [10, 0]"] ;
21 -> 23 ;
24 [label="gini = 0.0\nsamples = 45\nvalue = [0, 45]"] ;
12 -> 24 ;
}
